{"levels":[{"inputs":[0.5885652996756788,0.6052587615846157,0.606103410969522,0,0,0,0,0,0],"outputs":[0,0,0,1,0,0,1],"biases":[0.21522281019313647,0.33498593290653944,0.3963066822928751,-0.2756266213005713,0.09985424164655649,0.038303664549659916,0.11007621741889329],"weights":[[-0.3193639465547192,-0.3182003313719223,-0.05087038690915184,0.3908079792214773,0.24270399335977297,-0.07683979457565525,0.10787923928570764],[0.15332701559825918,-0.7061028137959016,0.00557805614230663,-0.463898550441142,-0.5752938270180249,-0.5847924547674546,0.5654285199449981],[-0.02558375068833263,0.5112338824886821,-0.597960449403864,0.33860812791257633,0.4178287351977246,0.5014159006124113,0.4830054290321794],[-0.16084407877102203,-0.2253890890427141,-0.41157573047252244,-0.1742083827973297,0.11478912696233613,-0.31684197102471756,-0.17359929518926276],[-0.053373119243514074,-0.49004877520916434,-0.24459294430829387,-0.4927913113659086,0.5371922782507271,-0.29686501616683847,0.04239121696259124],[0.145017928736354,-0.27749396189222447,0.07049020552779539,0.5735955286281845,-0.295847817081613,0.3380807816339956,-0.2782795647281988],[0.25623155298933753,-0.6852534195832749,0.03668443599791664,0.22100196467291033,0.5247905166221173,-0.1972472397214464,0.2222215873694065],[-0.12302737580415041,-0.44694881766636113,0.6540188673826582,-0.17507830509106498,-0.5043468770533169,-0.5546699282836529,-0.43808073030482386],[0.3965137140407079,-0.49906115361404746,-0.1587373351599526,0.22407660526517262,0.16598937626516833,-0.2851247337994907,-0.11037271221153905]]},{"inputs":[0,0,0,1,0,0,1],"outputs":[1,0,1,0],"biases":[-0.28462441318807363,-0.14103318968623138,0.40956229641039826,-0.19103731344871394],"weights":[[0.0827716976212186,0.3915516268627184,-0.11176926546381162,0.33533231637978006],[-0.5712993371872463,-0.1357611349144577,0.0005468239922404167,0.019246922720934326],[-0.0820503257888212,-0.24914071387020736,-0.036255988723681215,0.3525448497631488],[0.6228372708825733,-0.041235398621158104,0.25917396380864216,-0.5153683858733124],[0.3674157657307612,0.3221786534245257,0.2654622650207788,-0.3151076117575826],[0.07608000125281637,0.0625892306831192,-0.35062841376672016,-0.20908105671387817],[-0.019203161891913033,-0.45306195416367656,0.7004945746727161,-0.2782606807474805]]}]}